/*
 * ASL Sign Language Recognition Model
 * Auto-generated by micromlgen
 * 
 * Model Details:
 * - Input features: 63 (21 landmarks x 3 coordinates)
 * - Output classes: 26 (A-Z)
 * - Model type: Random Forest Classifier
 * - Estimators: 5
 * - Max depth: 10
 */

#ifndef ASL_MODEL_H
#define ASL_MODEL_H

#pragma once
#include <cstdarg>
namespace Eloquent {
    namespace ML {
        namespace Port {
            class RandomForest {
                public:
                    /**
                    * Predict class for features vector
                    */
                    int predict(float *x) {
                        uint8_t votes[26] = { 0 };
                        // tree #1
                        if (x[23] <= -0.027119972743093967) {
                            if (x[11] <= -0.1461777165532112) {
                                if (x[21] <= 0.4257458746433258) {
                                    if (x[62] <= -0.06830047070980072) {
                                        if (x[60] <= 0.5529581606388092) {
                                            if (x[54] <= 0.1675754338502884) {
                                                votes[11] += 1;
                                            }

                                            else {
                                                if (x[17] <= -0.19590524584054947) {
                                                    if (x[40] <= 0.4004994034767151) {
                                                        votes[16] += 1;
                                                    }

                                                    else {
                                                        votes[15] += 1;
                                                    }
                                                }

                                                else {
                                                    if (x[48] <= 0.5434299409389496) {
                                                        if (x[25] <= 0.6331047117710114) {
                                                            votes[15] += 1;
                                                        }

                                                        else {
                                                            votes[15] += 1;
                                                        }
                                                    }

                                                    else {
                                                        votes[15] += 1;
                                                    }
                                                }
                                            }
                                        }

                                        else {
                                            if (x[2] <= 1.6312764614667685e-06) {
                                                votes[16] += 1;
                                            }

                                            else {
                                                votes[7] += 1;
                                            }
                                        }
                                    }

                                    else {
                                        if (x[31] <= 0.6542141735553741) {
                                            if (x[33] <= 0.23317208886146545) {
                                                votes[16] += 1;
                                            }

                                            else {
                                                votes[16] += 1;
                                            }
                                        }

                                        else {
                                            votes[15] += 1;
                                        }
                                    }
                                }

                                else {
                                    if (x[41] <= -0.07028316706418991) {
                                        if (x[49] <= 0.6180887520313263) {
                                            if (x[4] <= 0.6741596162319183) {
                                                if (x[34] <= 0.528449147939682) {
                                                    votes[7] += 1;
                                                }

                                                else {
                                                    votes[13] += 1;
                                                }
                                            }

                                            else {
                                                votes[22] += 1;
                                            }
                                        }

                                        else {
                                            if (x[1] <= 0.6825056374073029) {
                                                if (x[60] <= 0.46702195703983307) {
                                                    votes[12] += 1;
                                                }

                                                else {
                                                    votes[12] += 1;
                                                }
                                            }

                                            else {
                                                votes[22] += 1;
                                            }
                                        }
                                    }

                                    else {
                                        if (x[44] <= -0.12639186531305313) {
                                            if (x[37] <= 0.5896216630935669) {
                                                votes[7] += 1;
                                            }

                                            else {
                                                votes[11] += 1;
                                            }
                                        }

                                        else {
                                            if (x[54] <= 0.5316548049449921) {
                                                votes[4] += 1;
                                            }

                                            else {
                                                votes[16] += 1;
                                            }
                                        }
                                    }
                                }
                            }

                            else {
                                if (x[56] <= -0.045912763103842735) {
                                    if (x[44] <= -0.10485285520553589) {
                                        if (x[56] <= -0.09101009741425514) {
                                            if (x[10] <= 0.5960820615291595) {
                                                if (x[32] <= -0.11755886301398277) {
                                                    if (x[53] <= -0.0646284855902195) {
                                                        if (x[60] <= 0.46863268315792084) {
                                                            votes[23] += 1;
                                                        }

                                                        else {
                                                            votes[7] += 1;
                                                        }
                                                    }

                                                    else {
                                                        if (x[50] <= -0.10465854033827782) {
                                                            votes[24] += 1;
                                                        }

                                                        else {
                                                            if (x[62] <= -0.08805998787283897) {
                                                                votes[11] += 1;
                                                            }

                                                            else {
                                                                votes[6] += 1;
                                                            }
                                                        }
                                                    }
                                                }

                                                else {
                                                    if (x[23] <= -0.11599289253354073) {
                                                        if (x[44] <= -0.1336425393819809) {
                                                            if (x[60] <= 0.45260635018348694) {
                                                                votes[17] += 1;
                                                            }

                                                            else {
                                                                votes[7] += 1;
                                                            }
                                                        }

                                                        else {
                                                            if (x[50] <= -0.08766715601086617) {
                                                                votes[4] += 1;
                                                            }

                                                            else {
                                                                votes[0] += 1;
                                                            }
                                                        }
                                                    }

                                                    else {
                                                        if (x[61] <= 0.6127045154571533) {
                                                            if (x[24] <= 0.6498076915740967) {
                                                                votes[23] += 1;
                                                            }

                                                            else {
                                                                votes[25] += 1;
                                                            }
                                                        }

                                                        else {
                                                            if (x[38] <= -0.11422786861658096) {
                                                                votes[10] += 1;
                                                            }

                                                            else {
                                                                votes[18] += 1;
                                                            }
                                                        }
                                                    }
                                                }
                                            }

                                            else {
                                                if (x[31] <= 0.38932573795318604) {
                                                    if (x[42] <= 0.2995636761188507) {
                                                        votes[22] += 1;
                                                    }

                                                    else {
                                                        votes[22] += 1;
                                                    }
                                                }

                                                else {
                                                    if (x[12] <= 0.2489110231399536) {
                                                        votes[21] += 1;
                                                    }

                                                    else {
                                                        if (x[1] <= 0.7285448014736176) {
                                                            votes[12] += 1;
                                                        }

                                                        else {
                                                            if (x[17] <= -0.03861880861222744) {
                                                                votes[24] += 1;
                                                            }

                                                            else {
                                                                votes[23] += 1;
                                                            }
                                                        }
                                                    }
                                                }
                                            }
                                        }

                                        else {
                                            if (x[62] <= -0.07290111482143402) {
                                                if (x[15] <= 0.4706363081932068) {
                                                    votes[24] += 1;
                                                }

                                                else {
                                                    if (x[56] <= -0.08995040878653526) {
                                                        votes[24] += 1;
                                                    }

                                                    else {
                                                        votes[24] += 1;
                                                    }
                                                }
                                            }

                                            else {
                                                votes[0] += 1;
                                            }
                                        }
                                    }

                                    else {
                                        if (x[50] <= -0.07716373354196548) {
                                            if (x[46] <= 0.3842414617538452) {
                                                if (x[29] <= -0.014590402599424124) {
                                                    if (x[4] <= 0.6346624493598938) {
                                                        if (x[26] <= -0.09274882823228836) {
                                                            votes[25] += 1;
                                                        }

                                                        else {
                                                            votes[20] += 1;
                                                        }
                                                    }

                                                    else {
                                                        if (x[54] <= 0.3108474314212799) {
                                                            votes[1] += 1;
                                                        }

                                                        else {
                                                            votes[1] += 1;
                                                        }
                                                    }
                                                }

                                                else {
                                                    if (x[19] <= 0.281595379114151) {
                                                        votes[24] += 1;
                                                    }

                                                    else {
                                                        votes[5] += 1;
                                                    }
                                                }
                                            }

                                            else {
                                                if (x[8] <= -0.06810248643159866) {
                                                    if (x[35] <= -0.09937737509608269) {
                                                        if (x[58] <= 0.6366826891899109) {
                                                            if (x[12] <= 0.58812615275383) {
                                                                votes[4] += 1;
                                                            }

                                                            else {
                                                                votes[24] += 1;
                                                            }
                                                        }

                                                        else {
                                                            votes[15] += 1;
                                                        }
                                                    }

                                                    else {
                                                        if (x[29] <= -0.02604061458259821) {
                                                            votes[1] += 1;
                                                        }

                                                        else {
                                                            votes[17] += 1;
                                                        }
                                                    }
                                                }

                                                else {
                                                    if (x[17] <= -0.004486503545194864) {
                                                        if (x[62] <= -0.06555747985839844) {
                                                            if (x[19] <= 0.6967226266860962) {
                                                                votes[21] += 1;
                                                            }

                                                            else {
                                                                votes[15] += 1;
                                                            }
                                                        }

                                                        else {
                                                            if (x[53] <= -0.04240910895168781) {
                                                                votes[21] += 1;
                                                            }

                                                            else {
                                                                votes[20] += 1;
                                                            }
                                                        }
                                                    }

                                                    else {
                                                        if (x[3] <= 0.7095779776573181) {
                                                            votes[14] += 1;
                                                        }

                                                        else {
                                                            votes[5] += 1;
                                                        }
                                                    }
                                                }
                                            }
                                        }

                                        else {
                                            if (x[26] <= -0.08016331493854523) {
                                                if (x[22] <= 0.5578163266181946) {
                                                    if (x[61] <= 0.45860838890075684) {
                                                        if (x[2] <= -1.0083404049510136e-06) {
                                                            votes[9] += 1;
                                                        }

                                                        else {
                                                            if (x[61] <= 0.2171432301402092) {
                                                                votes[8] += 1;
                                                            }

                                                            else {
                                                                votes[18] += 1;
                                                            }
                                                        }
                                                    }

                                                    else {
                                                        if (x[46] <= 0.5609472990036011) {
                                                            if (x[1] <= 0.7158297002315521) {
                                                                votes[18] += 1;
                                                            }

                                                            else {
                                                                votes[4] += 1;
                                                            }
                                                        }

                                                        else {
                                                            if (x[16] <= 0.5400095283985138) {
                                                                votes[9] += 1;
                                                            }

                                                            else {
                                                                votes[10] += 1;
                                                            }
                                                        }
                                                    }
                                                }

                                                else {
                                                    if (x[41] <= -0.032401349395513535) {
                                                        if (x[38] <= -0.08378658071160316) {
                                                            votes[18] += 1;
                                                        }

                                                        else {
                                                            votes[18] += 1;
                                                        }
                                                    }

                                                    else {
                                                        if (x[28] <= 0.6308779418468475) {
                                                            votes[18] += 1;
                                                        }

                                                        else {
                                                            if (x[58] <= 0.6751104295253754) {
                                                                votes[8] += 1;
                                                            }

                                                            else {
                                                                votes[19] += 1;
                                                            }
                                                        }
                                                    }
                                                }
                                            }

                                            else {
                                                if (x[7] <= 0.7293661534786224) {
                                                    if (x[58] <= 0.6380229592323303) {
                                                        if (x[41] <= -0.009409360587596893) {
                                                            if (x[37] <= 0.15739616751670837) {
                                                                votes[20] += 1;
                                                            }

                                                            else {
                                                                votes[23] += 1;
                                                            }
                                                        }

                                                        else {
                                                            if (x[1] <= 0.6794528067111969) {
                                                                votes[19] += 1;
                                                            }

                                                            else {
                                                                votes[5] += 1;
                                                            }
                                                        }
                                                    }

                                                    else {
                                                        if (x[12] <= 0.7226156890392303) {
                                                            if (x[28] <= 0.5905289053916931) {
                                                                votes[10] += 1;
                                                            }

                                                            else {
                                                                votes[10] += 1;
                                                            }
                                                        }

                                                        else {
                                                            votes[10] += 1;
                                                        }
                                                    }
                                                }

                                                else {
                                                    if (x[35] <= -0.06506986543536186) {
                                                        if (x[3] <= 0.7107082605361938) {
                                                            if (x[56] <= -0.0805596187710762) {
                                                                votes[25] += 1;
                                                            }

                                                            else {
                                                                votes[25] += 1;
                                                            }
                                                        }

                                                        else {
                                                            votes[25] += 1;
                                                        }
                                                    }

                                                    else {
                                                        if (x[21] <= 0.8527200520038605) {
                                                            votes[2] += 1;
                                                        }

                                                        else {
                                                            votes[10] += 1;
                                                        }
                                                    }
                                                }
                                            }
                                        }
                                    }
                                }

                                else {
                                    if (x[8] <= -0.07678065076470375) {
                                        if (x[45] <= 0.4763549864292145) {
                                            if (x[47] <= -0.07641289010643959) {
                                                votes[9] += 1;
                                            }

                                            else {
                                                votes[9] += 1;
                                            }
                                        }

                                        else {
                                            votes[16] += 1;
                                        }
                                    }

                                    else {
                                        if (x[2] <= -2.5024873195889086e-07) {
                                            if (x[62] <= -0.02046885248273611) {
                                                if (x[12] <= 0.8541297912597656) {
                                                    if (x[35] <= -0.0767035000026226) {
                                                        votes[8] += 1;
                                                    }

                                                    else {
                                                        votes[8] += 1;
                                                    }
                                                }

                                                else {
                                                    votes[24] += 1;
                                                }
                                            }

                                            else {
                                                if (x[42] <= 0.6812406182289124) {
                                                    if (x[22] <= 0.43224869668483734) {
                                                        votes[8] += 1;
                                                    }

                                                    else {
                                                        votes[4] += 1;
                                                    }
                                                }

                                                else {
                                                    votes[24] += 1;
                                                }
                                            }
                                        }

                                        else {
                                            if (x[37] <= 0.4524681568145752) {
                                                if (x[4] <= 0.6359152495861053) {
                                                    votes[2] += 1;
                                                }

                                                else {
                                                    votes[1] += 1;
                                                }
                                            }

                                            else {
                                                if (x[28] <= 0.6152761876583099) {
                                                    votes[4] += 1;
                                                }

                                                else {
                                                    votes[25] += 1;
                                                }
                                            }
                                        }
                                    }
                                }
                            }
                        }

                        else {
                            if (x[35] <= -0.001055053697200492) {
                                if (x[26] <= 0.02124708704650402) {
                                    if (x[56] <= -0.09221892058849335) {
                                        if (x[49] <= 0.40071438252925873) {
                                            votes[3] += 1;
                                        }

                                        else {
                                            votes[3] += 1;
                                        }
                                    }

                                    else {
                                        if (x[29] <= 0.04365832917392254) {
                                            if (x[44] <= -0.031308069825172424) {
                                                if (x[48] <= 0.6173731088638306) {
                                                    if (x[28] <= 0.4703526943922043) {
                                                        votes[3] += 1;
                                                    }

                                                    else {
                                                        votes[5] += 1;
                                                    }
                                                }

                                                else {
                                                    votes[2] += 1;
                                                }
                                            }

                                            else {
                                                if (x[62] <= -0.026353302411735058) {
                                                    if (x[42] <= 0.6431522965431213) {
                                                        if (x[0] <= 0.43595097959041595) {
                                                            votes[2] += 1;
                                                        }

                                                        else {
                                                            votes[14] += 1;
                                                        }
                                                    }

                                                    else {
                                                        votes[2] += 1;
                                                    }
                                                }

                                                else {
                                                    votes[2] += 1;
                                                }
                                            }
                                        }

                                        else {
                                            if (x[7] <= 0.5512062013149261) {
                                                votes[14] += 1;
                                            }

                                            else {
                                                votes[14] += 1;
                                            }
                                        }
                                    }
                                }

                                else {
                                    if (x[60] <= 0.5232136249542236) {
                                        votes[3] += 1;
                                    }

                                    else {
                                        votes[3] += 1;
                                    }
                                }
                            }

                            else {
                                if (x[14] <= 0.05470464564859867) {
                                    if (x[56] <= -0.027303029783070087) {
                                        if (x[60] <= 0.517973318696022) {
                                            votes[5] += 1;
                                        }

                                        else {
                                            votes[2] += 1;
                                        }
                                    }

                                    else {
                                        if (x[25] <= 0.5080992877483368) {
                                            votes[14] += 1;
                                        }

                                        else {
                                            votes[14] += 1;
                                        }
                                    }
                                }

                                else {
                                    votes[3] += 1;
                                }
                            }
                        }

                        // tree #2
                        if (x[29] <= 0.05633760616183281) {
                            if (x[17] <= -0.04561329819262028) {
                                if (x[5] <= -0.1127510778605938) {
                                    if (x[49] <= 0.7125057578086853) {
                                        if (x[59] <= -0.08665797486901283) {
                                            if (x[21] <= 0.42535631358623505) {
                                                if (x[40] <= 0.23643910884857178) {
                                                    votes[15] += 1;
                                                }

                                                else {
                                                    votes[15] += 1;
                                                }
                                            }

                                            else {
                                                votes[13] += 1;
                                            }
                                        }

                                        else {
                                            if (x[6] <= 0.5088784992694855) {
                                                votes[16] += 1;
                                            }

                                            else {
                                                votes[16] += 1;
                                            }
                                        }
                                    }

                                    else {
                                        if (x[56] <= -0.1800791472196579) {
                                            if (x[2] <= 1.8410977986604848e-06) {
                                                votes[12] += 1;
                                            }

                                            else {
                                                votes[7] += 1;
                                            }
                                        }

                                        else {
                                            if (x[4] <= 0.7845149040222168) {
                                                votes[15] += 1;
                                            }

                                            else {
                                                votes[15] += 1;
                                            }
                                        }
                                    }
                                }

                                else {
                                    if (x[33] <= 0.3414211720228195) {
                                        if (x[48] <= 0.4400716722011566) {
                                            if (x[39] <= 0.2794567048549652) {
                                                if (x[12] <= 0.44339001178741455) {
                                                    votes[17] += 1;
                                                }

                                                else {
                                                    votes[11] += 1;
                                                }
                                            }

                                            else {
                                                if (x[25] <= 0.47128793597221375) {
                                                    votes[15] += 1;
                                                }

                                                else {
                                                    votes[15] += 1;
                                                }
                                            }
                                        }

                                        else {
                                            votes[7] += 1;
                                        }
                                    }

                                    else {
                                        if (x[47] <= -0.1659320592880249) {
                                            if (x[35] <= -0.1856137439608574) {
                                                if (x[49] <= 0.6377939879894257) {
                                                    if (x[34] <= 0.6058666706085205) {
                                                        votes[7] += 1;
                                                    }

                                                    else {
                                                        votes[13] += 1;
                                                    }
                                                }

                                                else {
                                                    if (x[6] <= 0.7998439073562622) {
                                                        if (x[1] <= 0.795003205537796) {
                                                            votes[12] += 1;
                                                        }

                                                        else {
                                                            votes[11] += 1;
                                                        }
                                                    }

                                                    else {
                                                        votes[9] += 1;
                                                    }
                                                }
                                            }

                                            else {
                                                if (x[61] <= 0.6160233020782471) {
                                                    votes[7] += 1;
                                                }

                                                else {
                                                    if (x[4] <= 0.8902180194854736) {
                                                        votes[22] += 1;
                                                    }

                                                    else {
                                                        votes[22] += 1;
                                                    }
                                                }
                                            }
                                        }

                                        else {
                                            if (x[60] <= 0.36104463040828705) {
                                                if (x[2] <= -7.271262774111165e-07) {
                                                    if (x[57] <= 0.15803863108158112) {
                                                        votes[24] += 1;
                                                    }

                                                    else {
                                                        votes[9] += 1;
                                                    }
                                                }

                                                else {
                                                    if (x[44] <= -0.13656093925237656) {
                                                        votes[11] += 1;
                                                    }

                                                    else {
                                                        votes[15] += 1;
                                                    }
                                                }
                                            }

                                            else {
                                                if (x[32] <= -0.1078861616551876) {
                                                    if (x[2] <= -1.1807238209371462e-07) {
                                                        if (x[22] <= 0.4857773780822754) {
                                                            votes[6] += 1;
                                                        }

                                                        else {
                                                            votes[25] += 1;
                                                        }
                                                    }

                                                    else {
                                                        if (x[11] <= -0.11999301612377167) {
                                                            votes[5] += 1;
                                                        }

                                                        else {
                                                            if (x[9] <= 0.8290892243385315) {
                                                                votes[6] += 1;
                                                            }

                                                            else {
                                                                votes[11] += 1;
                                                            }
                                                        }
                                                    }
                                                }

                                                else {
                                                    votes[16] += 1;
                                                }
                                            }
                                        }
                                    }
                                }
                            }

                            else {
                                if (x[49] <= 0.2702186554670334) {
                                    if (x[17] <= -0.013072130270302296) {
                                        if (x[24] <= 0.6595203876495361) {
                                            votes[1] += 1;
                                        }

                                        else {
                                            votes[1] += 1;
                                        }
                                    }

                                    else {
                                        if (x[28] <= 0.3811497539281845) {
                                            if (x[13] <= 0.2033884897828102) {
                                                votes[8] += 1;
                                            }

                                            else {
                                                if (x[2] <= 9.337401820630475e-07) {
                                                    votes[2] += 1;
                                                }

                                                else {
                                                    votes[2] += 1;
                                                }
                                            }
                                        }

                                        else {
                                            if (x[59] <= -0.05589264631271362) {
                                                votes[5] += 1;
                                            }

                                            else {
                                                votes[5] += 1;
                                            }
                                        }
                                    }
                                }

                                else {
                                    if (x[41] <= -0.06060195527970791) {
                                        if (x[5] <= -0.019517128821462393) {
                                            if (x[36] <= 0.6109309494495392) {
                                                votes[21] += 1;
                                            }

                                            else {
                                                votes[23] += 1;
                                            }
                                        }

                                        else {
                                            if (x[19] <= 0.36637240648269653) {
                                                votes[3] += 1;
                                            }

                                            else {
                                                votes[3] += 1;
                                            }
                                        }
                                    }

                                    else {
                                        if (x[8] <= -0.02666596509516239) {
                                            if (x[2] <= -1.4952797044998078e-07) {
                                                if (x[23] <= -0.11032693088054657) {
                                                    if (x[38] <= -0.12724972516298294) {
                                                        if (x[60] <= 0.09996795654296875) {
                                                            votes[9] += 1;
                                                        }

                                                        else {
                                                            if (x[24] <= 0.7828854322433472) {
                                                                votes[24] += 1;
                                                            }

                                                            else {
                                                                votes[9] += 1;
                                                            }
                                                        }
                                                    }

                                                    else {
                                                        if (x[44] <= -0.10058806464076042) {
                                                            if (x[52] <= 0.6638095378875732) {
                                                                votes[0] += 1;
                                                            }

                                                            else {
                                                                votes[19] += 1;
                                                            }
                                                        }

                                                        else {
                                                            if (x[7] <= 0.5665123760700226) {
                                                                votes[9] += 1;
                                                            }

                                                            else {
                                                                votes[4] += 1;
                                                            }
                                                        }
                                                    }
                                                }

                                                else {
                                                    if (x[56] <= -0.04798787273466587) {
                                                        if (x[12] <= 0.7953005433082581) {
                                                            if (x[25] <= 0.19562333822250366) {
                                                                votes[19] += 1;
                                                            }

                                                            else {
                                                                votes[18] += 1;
                                                            }
                                                        }

                                                        else {
                                                            votes[19] += 1;
                                                        }
                                                    }

                                                    else {
                                                        if (x[62] <= -0.020396669395267963) {
                                                            if (x[32] <= -0.06015891395509243) {
                                                                votes[9] += 1;
                                                            }

                                                            else {
                                                                votes[8] += 1;
                                                            }
                                                        }

                                                        else {
                                                            if (x[10] <= 0.47714434564113617) {
                                                                votes[9] += 1;
                                                            }

                                                            else {
                                                                votes[4] += 1;
                                                            }
                                                        }
                                                    }
                                                }
                                            }

                                            else {
                                                if (x[40] <= 0.2787677049636841) {
                                                    if (x[58] <= 0.29025736451148987) {
                                                        if (x[50] <= -0.06253966502845287) {
                                                            votes[25] += 1;
                                                        }

                                                        else {
                                                            votes[11] += 1;
                                                        }
                                                    }

                                                    else {
                                                        votes[23] += 1;
                                                    }
                                                }

                                                else {
                                                    if (x[53] <= -0.04886740632355213) {
                                                        if (x[34] <= 0.6151891946792603) {
                                                            if (x[11] <= -0.0857921727001667) {
                                                                votes[7] += 1;
                                                            }

                                                            else {
                                                                votes[21] += 1;
                                                            }
                                                        }

                                                        else {
                                                            if (x[31] <= 0.587756484746933) {
                                                                votes[23] += 1;
                                                            }

                                                            else {
                                                                votes[23] += 1;
                                                            }
                                                        }
                                                    }

                                                    else {
                                                        if (x[2] <= 3.664459029550926e-07) {
                                                            if (x[22] <= 0.4906715005636215) {
                                                                votes[11] += 1;
                                                            }

                                                            else {
                                                                votes[25] += 1;
                                                            }
                                                        }

                                                        else {
                                                            if (x[50] <= -0.08410962298512459) {
                                                                votes[17] += 1;
                                                            }

                                                            else {
                                                                votes[10] += 1;
                                                            }
                                                        }
                                                    }
                                                }
                                            }
                                        }

                                        else {
                                            if (x[22] <= 0.25227805227041245) {
                                                if (x[0] <= 0.4624653309583664) {
                                                    votes[3] += 1;
                                                }

                                                else {
                                                    votes[3] += 1;
                                                }
                                            }

                                            else {
                                                if (x[32] <= -0.031067676842212677) {
                                                    if (x[49] <= 0.37227030098438263) {
                                                        votes[5] += 1;
                                                    }

                                                    else {
                                                        if (x[56] <= -0.10306357219815254) {
                                                            votes[3] += 1;
                                                        }

                                                        else {
                                                            votes[2] += 1;
                                                        }
                                                    }
                                                }

                                                else {
                                                    if (x[54] <= 0.4347800761461258) {
                                                        votes[5] += 1;
                                                    }

                                                    else {
                                                        if (x[2] <= 1.178844764027076e-07) {
                                                            votes[4] += 1;
                                                        }

                                                        else {
                                                            if (x[2] <= 5.254880193206191e-07) {
                                                                votes[2] += 1;
                                                            }

                                                            else {
                                                                votes[2] += 1;
                                                            }
                                                        }
                                                    }
                                                }
                                            }
                                        }
                                    }
                                }
                            }
                        }

                        else {
                            if (x[32] <= 0.15428843349218369) {
                                if (x[29] <= 0.08458567038178444) {
                                    if (x[27] <= 0.5698767900466919) {
                                        if (x[16] <= 0.3230198472738266) {
                                            votes[14] += 1;
                                        }

                                        else {
                                            votes[14] += 1;
                                        }
                                    }

                                    else {
                                        votes[14] += 1;
                                    }
                                }

                                else {
                                    votes[14] += 1;
                                }
                            }

                            else {
                                votes[3] += 1;
                            }
                        }

                        // tree #3
                        if (x[41] <= 0.027235951274633408) {
                            if (x[17] <= -0.0911894328892231) {
                                if (x[41] <= -0.10824215412139893) {
                                    if (x[21] <= 0.4447057247161865) {
                                        if (x[14] <= -0.4155058115720749) {
                                            votes[16] += 1;
                                        }

                                        else {
                                            if (x[40] <= 0.6927008330821991) {
                                                votes[15] += 1;
                                            }

                                            else {
                                                votes[7] += 1;
                                            }
                                        }
                                    }

                                    else {
                                        if (x[11] <= -0.25474855303764343) {
                                            if (x[34] <= 0.6684846878051758) {
                                                votes[12] += 1;
                                            }

                                            else {
                                                if (x[40] <= 0.33087384700775146) {
                                                    votes[13] += 1;
                                                }

                                                else {
                                                    votes[22] += 1;
                                                }
                                            }
                                        }

                                        else {
                                            if (x[37] <= 0.6423515379428864) {
                                                votes[9] += 1;
                                            }

                                            else {
                                                if (x[12] <= 0.7500877380371094) {
                                                    votes[12] += 1;
                                                }

                                                else {
                                                    votes[12] += 1;
                                                }
                                            }
                                        }
                                    }
                                }

                                else {
                                    if (x[2] <= -9.209331963688783e-08) {
                                        if (x[47] <= -0.1370861455798149) {
                                            votes[15] += 1;
                                        }

                                        else {
                                            if (x[46] <= 0.6681995093822479) {
                                                votes[16] += 1;
                                            }

                                            else {
                                                votes[15] += 1;
                                            }
                                        }
                                    }

                                    else {
                                        if (x[47] <= -0.11174078658223152) {
                                            if (x[37] <= 0.3904419541358948) {
                                                votes[22] += 1;
                                            }

                                            else {
                                                if (x[1] <= 0.823643684387207) {
                                                    if (x[37] <= 0.41575442254543304) {
                                                        votes[15] += 1;
                                                    }

                                                    else {
                                                        if (x[4] <= 0.7844679951667786) {
                                                            if (x[5] <= -0.21428406238555908) {
                                                                votes[15] += 1;
                                                            }

                                                            else {
                                                                votes[15] += 1;
                                                            }
                                                        }

                                                        else {
                                                            votes[15] += 1;
                                                        }
                                                    }
                                                }

                                                else {
                                                    votes[11] += 1;
                                                }
                                            }
                                        }

                                        else {
                                            if (x[43] <= 0.689445972442627) {
                                                if (x[2] <= 2.9866349393614655e-07) {
                                                    votes[16] += 1;
                                                }

                                                else {
                                                    votes[16] += 1;
                                                }
                                            }

                                            else {
                                                votes[15] += 1;
                                            }
                                        }
                                    }
                                }
                            }

                            else {
                                if (x[8] <= -0.02679689135402441) {
                                    if (x[49] <= 0.3041258305311203) {
                                        if (x[58] <= 0.5658442974090576) {
                                            if (x[7] <= 0.5294356346130371) {
                                                if (x[55] <= 0.31504200398921967) {
                                                    if (x[13] <= 0.16701586544513702) {
                                                        if (x[31] <= 0.09820707514882088) {
                                                            votes[18] += 1;
                                                        }

                                                        else {
                                                            votes[19] += 1;
                                                        }
                                                    }

                                                    else {
                                                        if (x[47] <= -0.04335215128958225) {
                                                            if (x[59] <= -0.058600934222340584) {
                                                                votes[2] += 1;
                                                            }

                                                            else {
                                                                votes[8] += 1;
                                                            }
                                                        }

                                                        else {
                                                            votes[2] += 1;
                                                        }
                                                    }
                                                }

                                                else {
                                                    votes[5] += 1;
                                                }
                                            }

                                            else {
                                                if (x[6] <= 0.7340742945671082) {
                                                    votes[1] += 1;
                                                }

                                                else {
                                                    if (x[53] <= -0.05595682933926582) {
                                                        votes[5] += 1;
                                                    }

                                                    else {
                                                        votes[5] += 1;
                                                    }
                                                }
                                            }
                                        }

                                        else {
                                            votes[22] += 1;
                                        }
                                    }

                                    else {
                                        if (x[23] <= -0.11662983894348145) {
                                            if (x[35] <= -0.13205353170633316) {
                                                if (x[36] <= 0.2579754739999771) {
                                                    if (x[51] <= 0.35450640320777893) {
                                                        votes[21] += 1;
                                                    }

                                                    else {
                                                        votes[7] += 1;
                                                    }
                                                }

                                                else {
                                                    if (x[9] <= 0.8501590192317963) {
                                                        if (x[5] <= -0.06883487477898598) {
                                                            if (x[25] <= 0.27224186062812805) {
                                                                votes[11] += 1;
                                                            }

                                                            else {
                                                                votes[24] += 1;
                                                            }
                                                        }

                                                        else {
                                                            if (x[51] <= 0.27902890741825104) {
                                                                votes[24] += 1;
                                                            }

                                                            else {
                                                                votes[6] += 1;
                                                            }
                                                        }
                                                    }

                                                    else {
                                                        if (x[51] <= 0.607900857925415) {
                                                            if (x[3] <= 0.8275738656520844) {
                                                                votes[24] += 1;
                                                            }

                                                            else {
                                                                votes[24] += 1;
                                                            }
                                                        }

                                                        else {
                                                            votes[9] += 1;
                                                        }
                                                    }
                                                }
                                            }

                                            else {
                                                if (x[5] <= -0.05917210504412651) {
                                                    if (x[18] <= 0.535218358039856) {
                                                        if (x[24] <= 0.35886257886886597) {
                                                            votes[17] += 1;
                                                        }

                                                        else {
                                                            if (x[50] <= -0.08397767692804337) {
                                                                votes[24] += 1;
                                                            }

                                                            else {
                                                                votes[9] += 1;
                                                            }
                                                        }
                                                    }

                                                    else {
                                                        if (x[49] <= 0.5386015474796295) {
                                                            if (x[4] <= 0.7013710737228394) {
                                                                votes[4] += 1;
                                                            }

                                                            else {
                                                                votes[4] += 1;
                                                            }
                                                        }

                                                        else {
                                                            votes[20] += 1;
                                                        }
                                                    }
                                                }

                                                else {
                                                    if (x[14] <= -0.09857134148478508) {
                                                        if (x[49] <= 0.7728299498558044) {
                                                            if (x[0] <= 0.7451022565364838) {
                                                                votes[18] += 1;
                                                            }

                                                            else {
                                                                votes[9] += 1;
                                                            }
                                                        }

                                                        else {
                                                            votes[19] += 1;
                                                        }
                                                    }

                                                    else {
                                                        if (x[18] <= 0.43567098677158356) {
                                                            votes[0] += 1;
                                                        }

                                                        else {
                                                            if (x[39] <= 0.6400835514068604) {
                                                                votes[0] += 1;
                                                            }

                                                            else {
                                                                votes[0] += 1;
                                                            }
                                                        }
                                                    }
                                                }
                                            }
                                        }

                                        else {
                                            if (x[61] <= 0.30129341781139374) {
                                                if (x[10] <= 0.3221830278635025) {
                                                    if (x[6] <= 0.722337543964386) {
                                                        votes[9] += 1;
                                                    }

                                                    else {
                                                        votes[24] += 1;
                                                    }
                                                }

                                                else {
                                                    if (x[50] <= -0.03333578072488308) {
                                                        votes[8] += 1;
                                                    }

                                                    else {
                                                        votes[8] += 1;
                                                    }
                                                }
                                            }

                                            else {
                                                if (x[47] <= -0.09933259338140488) {
                                                    if (x[5] <= -0.07478999346494675) {
                                                        votes[17] += 1;
                                                    }

                                                    else {
                                                        if (x[35] <= -0.11062505468726158) {
                                                            if (x[5] <= -0.06049240566790104) {
                                                                votes[10] += 1;
                                                            }

                                                            else {
                                                                votes[25] += 1;
                                                            }
                                                        }

                                                        else {
                                                            if (x[29] <= -0.02287158463150263) {
                                                                votes[21] += 1;
                                                            }

                                                            else {
                                                                votes[20] += 1;
                                                            }
                                                        }
                                                    }
                                                }

                                                else {
                                                    if (x[19] <= 0.5852042734622955) {
                                                        if (x[44] <= -0.0620145108550787) {
                                                            if (x[32] <= -0.08640922978520393) {
                                                                votes[11] += 1;
                                                            }

                                                            else {
                                                                votes[18] += 1;
                                                            }
                                                        }

                                                        else {
                                                            if (x[10] <= 0.5122762024402618) {
                                                                votes[19] += 1;
                                                            }

                                                            else {
                                                                votes[4] += 1;
                                                            }
                                                        }
                                                    }

                                                    else {
                                                        if (x[58] <= 0.6118899881839752) {
                                                            if (x[2] <= -9.969385672548015e-08) {
                                                                votes[8] += 1;
                                                            }

                                                            else {
                                                                votes[14] += 1;
                                                            }
                                                        }

                                                        else {
                                                            if (x[34] <= 0.7269964516162872) {
                                                                votes[25] += 1;
                                                            }

                                                            else {
                                                                votes[19] += 1;
                                                            }
                                                        }
                                                    }
                                                }
                                            }
                                        }
                                    }
                                }

                                else {
                                    if (x[45] <= 0.5354686081409454) {
                                        if (x[21] <= 0.5726099014282227) {
                                            if (x[40] <= 0.336697593331337) {
                                                votes[2] += 1;
                                            }

                                            else {
                                                if (x[59] <= -0.07959101721644402) {
                                                    votes[3] += 1;
                                                }

                                                else {
                                                    votes[14] += 1;
                                                }
                                            }
                                        }

                                        else {
                                            votes[5] += 1;
                                        }
                                    }

                                    else {
                                        if (x[24] <= 0.6223381757736206) {
                                            if (x[45] <= 0.57601198554039) {
                                                votes[3] += 1;
                                            }

                                            else {
                                                votes[3] += 1;
                                            }
                                        }

                                        else {
                                            if (x[29] <= -0.0161095610819757) {
                                                votes[3] += 1;
                                            }

                                            else {
                                                if (x[5] <= -0.015657455660402775) {
                                                    if (x[52] <= 0.3431546837091446) {
                                                        votes[8] += 1;
                                                    }

                                                    else {
                                                        votes[4] += 1;
                                                    }
                                                }

                                                else {
                                                    if (x[2] <= 4.791618835042755e-07) {
                                                        votes[3] += 1;
                                                    }

                                                    else {
                                                        if (x[13] <= 0.513349860906601) {
                                                            votes[2] += 1;
                                                        }

                                                        else {
                                                            votes[2] += 1;
                                                        }
                                                    }
                                                }
                                            }
                                        }
                                    }
                                }
                            }
                        }

                        else {
                            if (x[5] <= 0.07067826204001904) {
                                if (x[53] <= -0.0006843027076683939) {
                                    votes[14] += 1;
                                }

                                else {
                                    if (x[13] <= 0.5102632939815521) {
                                        votes[14] += 1;
                                    }

                                    else {
                                        votes[14] += 1;
                                    }
                                }
                            }

                            else {
                                votes[3] += 1;
                            }
                        }

                        // tree #4
                        if (x[23] <= -0.11583186686038971) {
                            if (x[36] <= 0.2230764627456665) {
                                if (x[56] <= -0.14256562292575836) {
                                    votes[7] += 1;
                                }

                                else {
                                    votes[16] += 1;
                                }
                            }

                            else {
                                if (x[53] <= -0.018167076632380486) {
                                    if (x[26] <= -0.1861734539270401) {
                                        if (x[42] <= 0.4970763176679611) {
                                            if (x[56] <= -0.1385384052991867) {
                                                if (x[23] <= -0.2863795906305313) {
                                                    if (x[19] <= 0.47487299144268036) {
                                                        votes[12] += 1;
                                                    }

                                                    else {
                                                        votes[13] += 1;
                                                    }
                                                }

                                                else {
                                                    if (x[51] <= 0.280905544757843) {
                                                        votes[11] += 1;
                                                    }

                                                    else {
                                                        votes[22] += 1;
                                                    }
                                                }
                                            }

                                            else {
                                                if (x[12] <= 0.5980758368968964) {
                                                    if (x[14] <= -0.31034180521965027) {
                                                        votes[16] += 1;
                                                    }

                                                    else {
                                                        if (x[42] <= 0.2465556636452675) {
                                                            votes[15] += 1;
                                                        }

                                                        else {
                                                            if (x[44] <= -0.13403939455747604) {
                                                                votes[15] += 1;
                                                            }

                                                            else {
                                                                votes[15] += 1;
                                                            }
                                                        }
                                                    }
                                                }

                                                else {
                                                    if (x[50] <= -0.13742291182279587) {
                                                        votes[5] += 1;
                                                    }

                                                    else {
                                                        votes[24] += 1;
                                                    }
                                                }
                                            }
                                        }

                                        else {
                                            if (x[17] <= -0.11232063174247742) {
                                                if (x[37] <= 0.6473773717880249) {
                                                    votes[7] += 1;
                                                }

                                                else {
                                                    if (x[55] <= 0.7509515583515167) {
                                                        votes[12] += 1;
                                                    }

                                                    else {
                                                        votes[22] += 1;
                                                    }
                                                }
                                            }

                                            else {
                                                if (x[60] <= 0.6576859951019287) {
                                                    votes[9] += 1;
                                                }

                                                else {
                                                    votes[7] += 1;
                                                }
                                            }
                                        }
                                    }

                                    else {
                                        if (x[49] <= 0.3266240209341049) {
                                            if (x[44] <= -0.12493298947811127) {
                                                votes[22] += 1;
                                            }

                                            else {
                                                votes[22] += 1;
                                            }
                                        }

                                        else {
                                            if (x[29] <= -0.02287558000534773) {
                                                if (x[29] <= -0.04325949214398861) {
                                                    if (x[59] <= -0.1096900925040245) {
                                                        if (x[36] <= 0.29865776002407074) {
                                                            if (x[13] <= 0.6470049023628235) {
                                                                votes[7] += 1;
                                                            }

                                                            else {
                                                                votes[21] += 1;
                                                            }
                                                        }

                                                        else {
                                                            if (x[2] <= -8.966424900336278e-07) {
                                                                votes[24] += 1;
                                                            }

                                                            else {
                                                                votes[11] += 1;
                                                            }
                                                        }
                                                    }

                                                    else {
                                                        if (x[25] <= 0.5257441699504852) {
                                                            if (x[32] <= -0.12213259562849998) {
                                                                votes[6] += 1;
                                                            }

                                                            else {
                                                                votes[6] += 1;
                                                            }
                                                        }

                                                        else {
                                                            votes[15] += 1;
                                                        }
                                                    }
                                                }

                                                else {
                                                    if (x[59] <= -0.10543379187583923) {
                                                        if (x[5] <= -0.062285374850034714) {
                                                            votes[17] += 1;
                                                        }

                                                        else {
                                                            if (x[56] <= -0.12227056920528412) {
                                                                votes[23] += 1;
                                                            }

                                                            else {
                                                                votes[5] += 1;
                                                            }
                                                        }
                                                    }

                                                    else {
                                                        if (x[0] <= 0.7802414298057556) {
                                                            if (x[3] <= 0.43696221709251404) {
                                                                votes[0] += 1;
                                                            }

                                                            else {
                                                                votes[24] += 1;
                                                            }
                                                        }

                                                        else {
                                                            votes[9] += 1;
                                                        }
                                                    }
                                                }
                                            }

                                            else {
                                                if (x[44] <= -0.10345655307173729) {
                                                    if (x[61] <= 0.30738550424575806) {
                                                        votes[24] += 1;
                                                    }

                                                    else {
                                                        if (x[34] <= 0.4039636105298996) {
                                                            if (x[19] <= 0.20683076977729797) {
                                                                votes[0] += 1;
                                                            }

                                                            else {
                                                                votes[4] += 1;
                                                            }
                                                        }

                                                        else {
